0.14537144
0.11003286
0.06832875
0.45428234
-0.47182724
0.4975863
0.080416486
0.36256993
0.18354003
0.46951482
-0.4990289
-0.26219496
0.39785612
-0.3405855
0.3823013
0.13959458
-0.31493258
-0.4866234
0.12659116
-0.045385335
-0.20654728
0.34551764
0.009296869
0.2315211
0.329074
-0.474267
0.262798
0.3424114
-0.38727447
-0.46190372
0.4288115
-0.052828744
-0.10716792
-0.24246733
-0.042661164
0.23177528
0.31644
-0.0792396
-0.4245071
0.41307375
0.123385206
0.43503654
-0.22062638
0.06087875
0.37589246
-0.13544947
-0.086367436
-0.12569362
0.15960895
0.16110745
-0.30711833
0.16616528
-0.40012345
0.46403188
-0.30686504
0.46082446
0.22667815
-0.41272742
0.297286
0.29029757
0.18939437
-0.3726236
-0.1913481
0.48500535
-0.42428425
0.48593903
-0.029072365
-4.5413713E-4
-0.3816807
0.47533545
-0.07710566
-0.41174066
-0.108776666
-0.39880416
-0.29853687
0.45011336
-0.3143917
-0.44859847
-0.23656136
0.30103514
-0.361152
-0.09227461
-0.36083898
0.19707751
0.33941454
-0.40125138
-0.24581185
-0.16462459
0.0767987
0.15620497
-0.34133655
-0.014054314
0.11854103
-0.093382046
0.3902462
0.17350642
-0.09760682
-0.16595085
0.46262977
-0.2816746
0.3104142
0.4806083
0.017887086
-0.22874257
-0.2422433
-0.07865563
0.014721811
0.03392028
0.17196605
-0.4595058
-0.071726255
0.44077942
0.06575388
0.06940723
0.33535194
0.19917627
-0.18770903
0.10007372
-0.073303886
0.23108663
-0.07904131
0.08230492
-0.05431242
0.24474579
-0.41645658
-0.36808348
-0.21415068
0.3704631
0.0057762438
-0.17098068
0.49622235
-0.4565955
0.079272956
0.07217385
0.24474233
-0.41107872
-0.24388617
-0.03399585
0.36294907
0.2683843
0.085692644
-0.33168137
0.46236295
0.38683292
0.24950574
0.099185385
0.24855512
0.4252704
0.085812196
0.42403874
0.086578034
0.06497643
-0.46376133
0.26277792
0.07210463
0.39808595
0.16262454
0.14579818
0.3489763
-0.4158516
0.38879374
-0.15385409
-0.31689122
0.20087868
0.39908224
0.3434261
-0.15549701
-0.43101865
-0.30990884
