-0.08694441
0.0021853547
-0.20438623
0.16929787
0.1162184
-0.27841842
-0.22270705
-0.35249457
-0.09229126
-0.42907533
-0.22737375
-0.30591863
-0.19959226
0.04208922
-0.374227
-0.4905059
0.10515479
-0.44699737
0.43905127
-0.42911398
-0.32187977
0.18098116
-0.19398364
-0.3554722
0.20131677
-0.31713036
-0.21346721
0.32358983
-0.10959926
-0.46502203
-0.37037563
0.25395083
-0.38961455
-0.15644185
-0.043112703
0.0111201005
-0.22279546
-0.24455413
0.36986467
0.15024531
-0.43035066
-0.32030562
-0.13682243
-0.004154332
0.20563927
0.39613375
0.33407006
0.01955129
-0.31540817
0.39324793
-0.4095708
0.0737846
0.3355477
0.016160337
-0.15666367
-0.14864063
0.4519622
-0.22390702
-0.2291819
-0.06486779
0.012760345
0.102273785
0.1416852
0.27702814
-0.014084052
-0.1078531
0.14306173
0.09352869
0.08477452
-0.43545485
0.07202669
0.19340877
0.22239767
0.32431093
0.044155963
-0.09056659
0.37223175
-0.374614
0.16269614
0.12434559
-0.30232617
-0.06572592
-0.23522533
-0.009618518
0.1750069
-0.38946915
-0.49525276
-0.17924903
-0.27579576
-0.20303658
-0.3051953
0.108373635
-0.13625358
0.25184587
0.24067706
0.3597701
-0.17216936
-0.39941442
0.38823566
-0.43369216
-0.112947784
0.4168128
0.063744284
-0.31610063
0.32920235
0.07256154
0.26031864
-0.10335546
0.48723972
-0.29175663
0.3228404
0.14346844
0.32597208
0.4999097
0.3319545
-0.31908724
0.2746149
-0.44016963
0.3958954
0.48393804
0.46974444
-0.40145397
0.16804266
0.011559351
-0.1722965
-0.19902478
-0.06353834
0.41484693
-0.030477881
0.13119344
-0.06708025
-0.07941305
0.1633398
-0.3257892
0.4207764
0.4779265
0.25967377
0.42868462
-0.3948423
0.16048212
0.33127925
-0.35569727
0.37808725
0.22094022
0.24601209
-0.24061804
0.10053972
-0.0037760902
-0.29287803
-0.3902856
-0.47535512
0.2941219
-0.23101383
-0.09149781
-0.2623944
-0.3079275
0.007287603
0.29884404
-0.17372185
-0.37361926
0.38322812
-0.06061615
0.1752518
-0.07370341
-0.053413473
-0.32344887
-0.21399295
-0.050401036
-0.075408876
-0.09661789
-0.39039153
-0.0843082
-0.27027854
0.47945875
0.3493856
0.384475
-0.42586544
-0.040316265
-0.012943433
-0.15272066
0.383165
-0.3886982
0.48706815
-0.08910485
-0.14066648
0.4317581
0.44117612
0.01176422
0.14312252
-0.34197462
0.39115065
-0.32144243
-0.061058532
0.35159802
-0.14886723
0.4313605
0.036842715
1.56346E-4
0.4612099
0.35461244
0.17790203
-0.07104151
0.49753556
-0.44458857
0.21339144
0.2444857
-0.20771196
0.44831517
-0.49393696
-0.18062896
0.32105026
0.12422107
0.25794664
-0.2268167
0.312611
-0.14979985
-0.17992522
0.30261776
-0.3607375
0.24709016
0.2797541
0.49582493
0.30908713
-0.027831394
0.09345332
-0.12297448
0.3216884
0.24005286
-0.14720066
0.49026582
0.1484458
0.1972615
-0.09577455
0.08214675
0.36913568
-0.25665563
-0.21640983
-0.20792286
-0.4122411
0.36109376
0.25148994
