-188668.36
-39874.805
-371550.9
340631.03
1885224.4
1940707.8
1923242.6
1919179.0
1919980.6
1876583.2
-2866230.0
240642.95
50859.38
473907.38
-434469.88
-2404575.0
-2475343.8
-2453066.2
-2447883.5
-2448905.0
-2393552.8
3655832.0
-104739.07
-22136.523
-206265.47
189100.33
1046578.44
1077380.0
1067684.9
1065429.0
1065872.8
1041781.6
-1591181.9
-238276.56
-50359.594
-469246.44
430196.94
2380925.5
2450997.8
2428939.8
2423808.5
2424820.0
2370011.8
-3619875.8
61580.895
13015.218
121273.5
-111182.11
-615335.9
-633444.94
-627745.2
-626418.94
-626680.2
-612515.5
935534.75
4517.1377
954.3749
8895.215
-8154.6294
-45132.2
-46459.902
-46042.312
-45945.047
-45964.094
-44925.254
68617.086
174476.5
36875.816
343603.4
-315009.53
-1743423.0
-1794733.2
-1778580.6
-1774823.8
-1775563.9
-1735430.9
2650639.0
-232550.08
-49149.113
-457968.94
419857.62
2323703.2
2392091.5
2370564.0
2365555.0
2366542.2
2313051.8
-3532876.5
30526.232
6452.1094
60117.312
-55113.895
-305029.34
-314006.28
-311179.88
-310523.1
-310652.03
-303631.1
463755.44
-144839.7
-30611.525
-285237.47
261500.9
1447277.0
1489871.9
1476463.6
1473343.9
1473959.2
1440642.9
-2200390.0
167746.44
35452.84
330348.22
-302857.38
-1676168.0
-1725498.0
-1709969.8
-1706356.9
-1707068.8
-1668484.6
2548386.5
26911.182
5688.0986
52997.867
-48588.184
-268909.22
-276823.06
-274331.88
-273752.22
-273867.06
-267676.6
408839.8
81636.24
17253.38
160768.7
-147389.89
-815729.7
-839737.06
-832180.06
-830421.94
-830767.6
-811989.94
1240206.6
-107502.75
-22721.105
-211708.88
194090.9
1074198.0
1105812.0
1095860.6
1093545.5
1094001.0
1069274.1
-1633172.2
0.3907327
-0.49837357
0.2169145
0.49347192
-0.1275348
-0.009354036
-0.36134273
0.48161197
-0.06322049
0.29996347
-0.3474034
-0.055734236
-0.16906855
0.22263879
-7708488.5
