0.30717418
-0.039479107
0.10807546
-0.071543165
-0.23619956
0.21636781
0.43079603
-0.24698202
-0.20392163
0.48966315
0.20511833
0.0011613152
0.26783866
0.3499412
-0.17494027
0.13800578
0.37172207
-0.03631432
-0.01737921
-0.3340312
0.47218135
0.38245484
-0.29140872
-0.4395176
0.47660643
0.27854005
0.09042036
0.08111471
-0.33839533
-0.3303074
-0.14361015
0.28136948
0.47619575
0.12074195
-0.12431761
0.3773504
0.21965641
-0.112532176
-0.23446354
-0.49635908
-0.3510226
0.47687852
0.21953283
0.28416482
-0.4906287
0.13808478
0.37515813
0.07645594
-0.2990034
-0.13074933
-0.47585735
-0.2903194
0.29603967
-0.3713615
-0.26432836
0.029919522
-0.097477
-0.4284429
-0.48957992
-0.40936965
-0.06531465
0.3000594
0.4124633
0.3818765
0.19450417
0.3085259
-0.26353297
-0.42117965
-0.20509037
0.035808638
-0.34083867
-0.09185415
-0.13753621
0.19340025
-0.0030438583
0.38048658
-0.35424298
0.3291307
-0.3543439
-0.18239906
-0.37450087
-0.09281548
0.013584151
-0.18504919
-0.026740834
-0.46223065
0.276026
-0.47649792
0.23803547
0.3735565
0.07675826
-0.09101835
0.45331317
0.10505296
0.38152382
-0.04751187
-0.048007205
0.43335283
-0.45132795
-0.40673208
0.052551124
0.37625635
0.32378027
0.08263292
0.43702137
0.27253297
0.38792616
-0.18259047
0.47985595
-0.11085612
0.2933817
-0.34802732
0.0064626606
-0.3924711
0.10585112
0.14983329
-0.038819134
0.2676017
-0.16102324
0.22891109
0.24669117
-0.118114084
-0.1853121
0.17903876
-0.4396717
0.097264245
0.41206998
0.08590797
0.39749426
-0.021898506
0.27778268
0.28258127
-0.48165566
0.41204157
-0.03734322
-0.4321419
0.081145704
0.19856776
0.121951856
-0.41980222
0.33418548
