-0.3590456
0.13663471
-0.10233447
-0.23649631
-0.37506065
-0.47085443
-0.025244098
-0.4272093
0.4808086
0.2164717
-0.4416635
-0.1900103
-0.49864048
9.478657E-5
0.100978605
0.09368025
-0.06177481
0.36096677
0.35046786
0.28610754
0.25440592
0.3050718
-0.3994614
-0.026271539
0.24566342
-0.46595943
-0.45682064
-0.40757498
0.37051737
0.27329406
-0.41684133
0.16409488
-4.1574947E-4
-0.21424954
0.062129915
-0.08570541
0.13402252
-0.14929655
-0.27618557
-0.3657515
0.2970926
0.3887406
0.07893098
-0.11838249
-0.16913879
0.07186181
-0.35180283
-0.3660693
-0.23919633
0.49677148
-0.47035456
-0.4977178
-0.42747778
-0.48248783
0.018975716
0.4766675
-0.22056721
0.38797286
-0.008194444
-0.4253578
0.13509214
-0.39724824
-0.40824506
-0.28498322
-0.35963833
0.32247022
-0.34641987
0.16929555
-0.26525944
0.27149633
-0.4071105
-0.25408262
0.39715686
-0.34976646
-0.03375687
0.24140923
0.30166015
-0.38753927
0.2166927
-0.3041208
0.006334843
0.07721978
-0.045880627
0.3898482
-0.31108308
0.20931503
0.36201105
0.24456294
-0.21913096
0.35039273
0.44817927
0.1923876
-0.27830705
0.0117382705
0.48703307
-0.16563383
0.4633086
-0.24738652
-0.06212689
-0.2572202
0.26322818
0.16201434
0.046605878
-0.22248346
0.13023576
0.1296875
-0.20012972
0.4711779
-0.2456147
-0.4657188
0.29706827
-0.27336833
-0.42628658
0.44634125
-0.49353838
0.3290655
-0.018306825
0.027570251
0.06765229
-0.4008391
0.16887751
-0.48202914
0.32414567
-0.2577358
-0.43357038
-0.15432951
0.17558508
0.066841
0.12323051
-0.47841275
-0.17912108
-0.09090581
0.3160445
-0.35541832
0.0921982
-0.036068186
-0.12570646
-0.004936804
-0.2902598
-0.28310636
0.45441225
0.43405864
0.062049095
-0.05710744
-0.4333732
0.116488926
-0.18194298
0.4165301
-0.13194183
0.39820647
0.48831278
-0.17785871
0.45947278
0.2057006
0.3907327
-0.49837357
0.2169145
0.49347192
-0.1275348
-0.009354036
-0.36134273
0.48161197
-0.06322049
0.29996347
-0.3474034
-0.055734236
-0.16906855
0.22263879
-0.1926334
0.41018605
-0.45986614
0.4507258
0.06890647
0.003591566
0.2073675
0.27164075
0.3002754
0.3991776
0.26485315
-0.21682441
-0.274097
0.054371316
-0.30920264
0.28127062
0.19640188
0.48034894
-0.4806049
-0.008103057
0.051899627
0.19329937
0.16382337
0.40490887
-0.43718225
0.41834286
-0.03012554
0.17062211
0.29736567
0.057685506
-0.12516412
-0.38566586
-0.32817838
-0.36911434
-0.21237138
0.052956868
-0.27706942
-0.0014523718
-0.16912025
-0.4988458
0.12579454
0.37023202
-0.30636653
-0.481526
-0.38592914
-0.32102704
-0.14142329
0.42878437
-0.12352771
-0.10937781
0.34587106
0.1712664
-0.093432106
0.37102222
-0.07948938
0.07183756
0.3995228
0.3484956
0.20728032
-0.30501598
0.0073296065
0.478627
0.20820154
0.07563384
0.079539716
-0.49900204
-0.14712894
-0.48352924
-0.4984147
0.20348138
0.17932618
0.24783266
-0.305107
