0.4154825
-0.18485747
-0.2716044
0.04808383
0.3942723
-0.1601072
-0.10369654
-0.18604204
0.25713807
-0.05440422
0.26290625
0.37335092
0.036637966
-0.48694026
0.39449233
-0.4121478
-0.16699532
-0.20570959
0.07343708
0.10396066
0.05338937
-0.42378375
-0.25860173
0.4706562
-0.07329465
-0.3115628
0.17106459
0.34526005
0.08682307
-0.4410449
-0.46724442
-0.2575315
0.44850406
-0.22471339
-0.22227055
0.010818071
-0.35580942
0.28066215
0.15322821
-0.1106765
0.4199042
0.30695945
0.09616399
-0.4704053
0.33891484
-0.27964684
0.16678199
-0.024646644
-0.47806594
-0.35828573
0.33546466
-0.34492248
0.16841972
0.24881716
0.19293177
0.25082582
0.46275714
-0.42193732
0.28222954
-0.13692221
0.06192142
0.08381214
-0.40324473
-0.121668056
-0.18344624
-0.1974609
0.45644656
-0.30524632
0.20925334
-0.41705117
0.46508795
-0.35286114
5.784765E-4
0.27909258
-0.13396396
-0.06581324
0.10459445
-0.48335138
0.38373038
-0.16533637
0.35682017
-0.23524821
-0.36879814
0.14756797
-0.22633836
-0.0029627087
-0.47114685
0.3424776
0.17234917
-0.09792425
-0.48312446
-0.120956935
-0.04577488
-0.4445128
-0.1090009
0.057317097
-0.4271731
-0.1663717
0.32413417
-0.002983971
0.41400233
0.25312823
-0.3464098
-0.41218838
0.07512598
0.2631983
0.19383606
-0.053500768
0.13912094
-0.29303464
0.117541246
0.16424336
0.30154195
0.15057552
0.32246324
-0.22470583
-0.3310581
-0.08071476
0.4711074
0.035218474
0.3263815
0.37372425
-0.1672723
0.11592913
-0.058938798
-0.12658675
-0.46105805
0.19481114
-0.044383187
-0.2520084
-0.11113111
0.12822002
0.48736483
0.15947817
0.03615301
-0.09672935
-0.14831011
0.13176984
0.4965627
0.1755406
0.112207316
-0.42991048
0.3310949
0.0052148174
-0.14298293
0.44876435
-0.24950954
0.021092419
-0.35151288
-0.39849347
-0.46995762
0.4716071
0.036761925
-0.08289381
-0.46991128
-0.091436386
-0.040128015
0.1400524
-0.36584118
-0.4002614
0.44103977
-0.39991558
-0.10959578
-0.18572895
-0.14017068
-0.23987395
-0.08505596
-0.40774152
0.2977454
0.26201874
-0.39094344
0.4775893
-0.27901268
-0.20612673
-0.42529634
0.29954472
-0.3319458
-0.2947706
0.33725768
0.42797264
-0.30207333
0.13519695
0.31566986
-0.15341817
-0.34038693
-0.3973325
-0.45886615
0.09449406
-0.29568937
-0.26906455
0.32294375
-0.19608359
0.02551791
0.35731405
-0.03205161
0.4469774
-0.10095317
-0.0208698
0.08300431
0.16038269
-0.1567127
0.44499758
-0.4651845
-0.44336605
-0.08128315
0.15050714
-0.2504893
-0.3264022
-0.36220765
-0.03494587
-0.084819615
0.4398268
-0.16632609
-0.030381659
0.16152927
0.11939194
0.11196395
-0.3027991
0.077032305
-0.46207875
0.44883195
0.06712856
-0.49538043
-0.13669994
0.32399592
-0.3416759
-0.46439388
-0.3675569
0.12631175
-0.24360007
0.104890466
-0.376514
0.3635049
-0.13339174
-0.38694555
-0.31221995
-0.36492223
0.21929443
-0.32806045
-0.3622