-2.5106013
0.16221005
-4.489626
0.17198876
-4.4886026
4.7597623
1.9645987
1.5324565
-2.0235453
2.1000376
0.17965688
4.079224
-4.2711964
1.4308321
4.393796
-0.8083718
-4.929842
1.8475937
-0.027876815
4.685763
2.099964
1.7314075
-1.6016594
-2.1714585
-1.4951882
-2.6644394
4.9296255
-0.16603398
3.2503018
-3.6450245
0.8508674
0.3320067
-4.0436487
-2.1087613
4.0577865
0.27361527
-4.6820583
-3.6827655
0.11573747
-4.985777
0.7863716
3.3448968
-1.4392688
3.2223926
4.003791
-3.1354058
3.4518323
-1.0544387
4.948689
-0.2245986
-2.3853323
-1.4806068
-3.883995
1.2584052
-2.4130828
0.34583053
-2.7106757
-3.4768813
-3.205166
-4.4839783
-4.6388507
-3.6524487
0.44842502
1.3268459
0.44040054
0.88165045
-3.2246335
0.31478256
4.7359037
4.776056
2.2248821
1.8729452
4.556733
3.7128296
2.703261
-2.8855557
-3.8692834
2.683897
-3.8437388
-0.43778917
-4.0592947
0.46713063
1.7670537
-3.6996777
0.65153307
-3.4905365
-0.78669953
-3.6467998
0.7545085
-0.96917474
0.18689156
-1.3692459
-3.5014684
-2.3669865
-2.128544
-3.0735874
4.7053156
4.39283
3.123046
-4.635271
3.8030465
3.8702538
-3.5068014
2.748241
4.254465
-1.2041909
3.541258
-3.0159955
0.18239632
-4.200545
0.9492784
2.7399487
4.56612
-2.2376559
-4.311213
3.303535
-1.5831996
-2.3290286
1.2322562
-1.0956153
-4.0430403
-0.9720698
4.639328
-1.3062353
2.2866292
-0.09270305
-2.1189888
-4.4561496
-1.0484656
-1.8029393
-1.9346566
1.4268804
0.25338677
0.18493648
-3.3315039
-4.242831
4.8569694
3.4188685
2.5006561
0.90900344
-4.012844
0.96392876
2.1600933
-2.873361
0.32102305
4.649442
2.731492
1.6730036
-1.3701152
1.233656
4.152458
1.2229899
-0.04034352
1.6765249
-2.2926357
-4.647556
0.7111684
-2.734302
0.23711385
0.5519182
4.3738933
2.5088086
-2.3926609
4.4026866
0.25370258
-2.8594918
-3.8543513
-1.7004914
-4.252194
-1.268496
3.8830254
2.255784
-1.631288
4.615714
1.9454969
3.1424963
-1.511772
2.381375
-3.5070016
0.7260275
2.1955903
4.220955
-2.7036374
-2.8614316
2.8836246
1.2551593
0.6935088
1.7132522
2.9807117
-1.4472235
-3.459121
-2.7144625
4.8691125
0.15957467
-0.7147139
-2.1505795
-3.4129624
1.7596476
-2.4713066
2.1770442
0.78286874
3.3548074
-3.3758054
-0.42699486
-3.0455275
2.6801748
-3.1689384
3.9024537
1.1276251
-0.23913838
-2.5033822
-2.114998
-1.0535816
-2.9135737
-0.9722241
-0.35337213
-1.3860339
4.4332905
-0.8584498
-0.5865084
-1.0851048
-3.6042666
-3.2254415
1.5977502
2.509447
0.9323628
-2.2780092
-2.7109125
-3.1271508
-3.345326
4.7485676
4.19073
-1.8767395
2.4173915
-1.1601503
4.067419
-0.44735914
4.0584235
-1.5594788
0.7854222
-2.2059305
