0.24167748
-0.16257101
0.3210049
-0.123777166
0.11433714
-0.24854314
0.17806195
-0.056914456
-0.11494449
-0.03662882
0.035697505
-0.21592109
0.16752155
0.087108046
0.1857583
0.13630125
-0.07865401
0.08943427
0.13696216
-0.16677965
0.13622734
0.029875303
-0.04367487
0.1038798
-0.07432319
0.07115976
0.10228578
0.1045739
-0.14372954
0.16727887
0.036163826
0.10757816
-0.008221077
-0.2594209
0.069743216
-0.09283051
-0.083918236
0.19607769
0.21034408
0.014858661
-0.19057237
0.18616773
0.05280426
0.17559291
0.24142124
0.109734215
0.09352179
-0.2830966
0.053618167
0.2373468
0.029918771
0.050019566
0.12971187
-0.1072105
0.19475332
0.11373556
0.16976479
0.15182103
0.0430704
0.22342928
-0.09331051
-0.07889121
0.11404953
-0.116545804
0.09023917
-0.05587518
-0.106709614
0.11016233
0.061563253
-0.09439669
0.05891764
0.01759534
0.12390149
0.10635253
0.20468478
-0.06450292
-0.022721842
0.1065732
-0.08688062
-0.13029164
-0.04821786
-0.08047868
0.08756177
0.103880286
0.18413168
-0.026711592
0.13496386
-0.18062769
0.049620412
0.04393063
0.108865544
-0.20961392
-0.1865866
-0.10259328
0.016940499
0.09057061
0.018707175
0.016909055
-0.13182867
-0.1615613
0.093926445
0.05325767
0.022520624
0.18118308
0.21160892
0.18815406
-0.06485145
-0.038739987
-0.11357685
0.10194584
-0.2208996
0.22624314
-0.25242814
-0.17310445
0.0061621442
0.095323846
-0.06426428
-0.07272949
-0.11643276
0.005401193
-0.09423309
-0.15114881
-0.2886033
-0.2879564
-0.04660707
-0.18974745
0.009423571
0.15732794
0.14484896
-0.01472338
-0.02389161
0.07744008
-0.17347957
0.02030336
-0.16591811
-0.031775195
-0.13637255
0.117683284
0.14390022
0.1506922
-0.056581397
-0.018727887
-0.13567233
-0.03745614
0.0177474
-0.2854049
-0.028256422
-0.0956337
0.09104698
-0.06344959
-0.07950921
-0.047525227
0.044395644
-0.06739806
0.13324137
-0.11183089
-0.0075239874
0.12055824
-0.1292679
-0.07147611
-0.19469695
0.012441081
0.1205239
0.038800698
0.18904038
-0.1452303
0.008486217
0.11278326
-0.071002536
